solver_type L2R_LR_DUAL
nr_class 2
label 1 -1
nr_feature 123
bias 0
w
-0.59640127587306202 
-1.3148579239583862 
-0.41649992366382166 
0.17911838820396089 
0.48690977239132505 
0.4689284111538472 
0.23807825939938848 
-0.15272790505367473 
0.55372169625067424 
0.66063616777745826 
0.0066934874214513319 
-0.10710555451661535 
-0.33700737757281718 
-0.0018886718676480892 
-0.28193530304521702 
-0.094702925773037114 
-0.10723211463821065 
-0.063075996923047981 
-0.04945493549353646 
-0.2895141033555288 
-0.065248604935642524 
0.17362906036235828 
-0.24147753837692679 
0.56617156598578811 
0.030359111857267883 
-0.001256486953171278 
-0.45089361590730692 
-0.39072925748581083 
0.39357294418618888 
-0.026609274231427883 
-0.20245655640407614 
-0.031958878065541693 
0.66657770574212571 
-0.33221171383473302 
-0.39435563445662125 
-1.235403651605534 
-0.24147753837692679 
-0.065248604935642524 
0.029102624904098526 
0.91662589414094464 
1.2327230833333009 
-0.62443196058166694 
-0.77322263572386407 
-0.71019008205615963 
-0.10861606806766605 
-0.4019405166186179 
0.78927690384159188 
0.72544320886585068 
0.15261546973600701 
-0.63733605559391771 
0.4370257529138471 
0.84205268777907694 
0.6587829800124505 
-0.59888822990648949 
-0.29954890742501539 
0.15102530747372905 
-0.76880858066461533 
0.044048404783808018 
-0.47248237059079462 
0.74256397109369321 
-0.11420486477179363 
1.2144944372618294 
-0.87721235872708536 
-0.16544655091319127 
0.049319146187701078 
-0.62696644167861904 
-0.19058950800371186 
0.072379758430114918 
0.10050301151042727 
-0.34649715076891685 
-0.3650929761039558 
-0.057693918940726258 
-0.70238660579124146 
0.10598532991820579 
-1.1028099056975405 
0.50640862982449564 
-0.85273257788497714 
0.25633130201189885 
-1.0433830637957653 
-0.25416732088589455 
-0.023257070978629366 
0.28228099121551048 
0.4421251885717169 
0.28048001143478674 
0.29942685029954785 
0.13371840738165042 
-0.36510330885602871 
0.45676714243182465 
0.51985682277693979 
-0.16353645977270512 
-0.19207094723637425 
0.39317653941416975 
-0.47805763371892618 
-0.375510640197319 
-0.4299478435103854 
0.27907798189521127 
0.16681230258292321 
-0.053470360138050517 
0.6001193822735279 
0.56504467919767787 
0.058889118396614572 
-0.082797530551437987 
-0.48056524653866345 
-0.39139819309599599 
0.035227211466640165 
0.45037174930792739 
0.39110920928557846 
-0.49881400152253308 
-0.091608123135938566 
0.018847547439498104 
0.12757638262963039 
0.11451602281442781 
-0.69338028025328302 
0.011010060897839189 
-0.19186524021976081 
-0.10048512479171967 
-0.039347928110777877 
-0.048765043894743426 
0.17095088268044029 
-0.24463041795458668 
-0.08475020153947195 
-0.36469335466933395 
0.020984370635258851 
-0.0035317750639860686 
